<?xml version="1.0"?>
<opencv_storage>
<my_svm type_id="opencv-ml-svm">
  <svm_type>C_SVC</svm_type>
  <kernel><type>LINEAR</type></kernel>
  <C>1.</C>
  <term_criteria><epsilon>1.1920928955078125e-07</epsilon>
    <iterations>1000</iterations></term_criteria>
  <var_all>1764</var_all>
  <var_count>1764</var_count>
  <class_count>2</class_count>
  <class_labels type_id="opencv-matrix">
    <rows>1</rows>
    <cols>2</cols>
    <dt>i</dt>
    <data>
      -1 1</data></class_labels>
  <sv_total>1</sv_total>
  <support_vectors>
    <_>
      -2.82213181e-01 -5.44176586e-02 -6.92626983e-02 -1.13857888e-01
      -2.85924580e-02 -6.29150569e-02 -2.60552168e-01 1.63385332e-01
      -1.21563926e-01 -4.86022606e-03 -3.53932418e-02 1.76508486e-01
      -8.15948024e-02 1.85116485e-01 -3.72654945e-01 -3.49301934e-01
      -1.89821119e-03 -1.93765908e-02 -5.26477732e-02 -4.76730764e-02
      1.08342677e-01 -2.09067017e-01 3.53798680e-02 -1.02330491e-01
      6.13744222e-02 -1.19768299e-01 1.16631351e-01 7.76411295e-02
      -3.17118436e-01 -7.74245039e-02 -1.29527524e-01 1.82430819e-01
      -8.66817310e-02 -1.34594098e-01 -1.42452404e-01 -1.31439790e-01
      -2.18811065e-01 -4.14441884e-01 -1.11349061e-01 1.68322760e-03
      -3.01063240e-01 -2.63301492e-01 -2.68490851e-01 -2.38666445e-01
      -7.75247887e-02 -2.07196504e-01 -3.52603614e-01 -2.12370738e-01
      -3.09339970e-01 3.54836509e-02 -4.02948372e-02 -7.56590590e-02
      1.10093951e-02 8.67908001e-02 -3.10818881e-01 -1.44030318e-01
      -4.38521989e-02 -5.31388028e-03 -1.55944183e-01 -2.42544323e-01
      2.91614849e-02 -5.02205528e-02 -7.70277753e-02 -2.40045473e-01
      -2.71954536e-01 -3.99768025e-01 -2.18728241e-02 8.14632997e-02
      -4.38847303e-01 2.78814018e-01 -1.44993186e-01 -3.59794274e-02
      -1.42930314e-01 -2.36116245e-01 -7.23392442e-02 -6.28110468e-02
      -2.92055070e-01 -8.26445371e-02 -3.79058905e-02 -8.50913674e-02
      2.95675248e-01 1.17033735e-01 1.96551785e-01 -6.30924199e-03
      8.72328132e-02 -2.02460721e-01 -3.95505399e-01 -1.52275175e-01
      -6.01297617e-02 -1.60578117e-01 -4.11507748e-02 2.22510565e-02
      -1.28791839e-01 8.24475810e-02 -1.37637958e-01 -6.80317357e-02
      -2.54595757e-01 -3.15407813e-01 -3.67898524e-01 -4.01203662e-01
      -4.51250434e-01 -4.32982385e-01 -3.06074191e-02 -3.21099937e-01
      -2.46222183e-01 -2.39151686e-01 -3.07300210e-01 -1.65376738e-01
      -1.70543835e-01 -2.33894795e-01 -1.12882942e-01 -2.51254916e-01
      -4.08766508e-01 -3.18244636e-01 2.26790234e-02 3.98011021e-02
      -6.99094869e-03 6.80369958e-02 -1.80299744e-01 -9.79981571e-02
      -9.07338113e-02 7.49983639e-02 8.37316513e-02 -1.27972364e-01
      -6.86818212e-02 -1.24497106e-02 -2.09422499e-01 -1.62043974e-01
      -1.20387614e-01 -9.65934768e-02 -1.05741031e-01 -2.45747760e-01
      -2.21546978e-01 -7.68684372e-02 -1.44511208e-01 -2.44869128e-01
      -8.73219520e-02 -2.42456302e-01 9.61970910e-03 -6.21511340e-02
      3.93978544e-02 -2.04128265e-01 -2.93793622e-02 -3.21499944e-01
      2.26766258e-01 -1.76795110e-01 -4.66987818e-01 -3.45765859e-01
      -8.63351449e-02 -2.70529445e-02 9.93112922e-02 -3.43029618e-01
      -8.33452046e-02 1.68563038e-01 -4.44224440e-02 8.51045400e-02
      1.07597053e-01 -6.78927451e-02 -9.15150493e-02 -1.80743948e-01
      1.48470253e-01 -1.26832008e-01 2.15614527e-01 2.55006235e-02
      -6.28462061e-02 -1.82572499e-01 1.93257824e-01 -2.07690652e-02
      -2.47722000e-01 -1.80967078e-01 -1.31482944e-01 -3.27376306e-01
      -1.08186714e-01 -3.59081298e-01 -7.86408186e-02 -5.20391583e-01
      1.53062060e-01 -1.59627259e-01 3.49449590e-02 -2.52052039e-01
      -2.58056641e-01 -2.98709214e-01 -4.09429185e-02 -1.35718063e-01
      -3.65103967e-02 -2.53140420e-01 -2.38142401e-01 -9.47055444e-02
      -2.72657186e-01 -3.67310971e-01 3.46697047e-02 1.56101687e-02
      -1.54342651e-01 -8.66227448e-02 -3.46702039e-01 -2.16942191e-01
      -1.86917096e-01 -2.88585782e-01 -1.29449934e-01 2.25217655e-01
      -1.77298352e-01 -8.62274393e-02 -6.85067475e-01 -2.67801564e-02
      -4.79494542e-01 -1.77729636e-01 -3.26327205e-01 5.12993056e-03
      -1.79579318e-01 -1.03657372e-01 -2.04321027e-01 -7.82696977e-02
      -1.03668258e-01 3.53302024e-02 -3.80008727e-01 1.49136171e-01
      -1.95896834e-01 -1.60500407e-01 -2.49218181e-01 -4.26790826e-02
      -1.37219712e-01 -2.96858132e-01 -2.21107647e-01 4.97304089e-02
      -3.07218343e-01 -2.10271135e-01 -2.08052178e-03 -1.13873355e-01
      -3.93707722e-01 -1.53427586e-01 -2.08292812e-01 -4.07161087e-01
      -2.31591508e-01 -3.94671589e-01 -3.44921574e-02 -8.08917955e-02
      -2.72420108e-01 -2.11226910e-01 -2.90214211e-01 -1.36842027e-01
      -3.22981149e-01 -2.84251338e-03 -1.20703377e-01 -1.35172933e-01
      -3.50576699e-01 -8.93839598e-02 3.89994979e-02 -6.61310032e-02
      -3.48743379e-01 -1.14698522e-01 -7.34939277e-02 1.47199621e-02
      -3.16492766e-01 -1.40912440e-02 -1.08264610e-01 7.69895837e-02
      -9.46535543e-02 -2.99552649e-01 -1.27332032e-01 -2.36631542e-01
      -2.18031511e-01 -4.36379164e-01 -5.52202687e-02 -1.65595248e-01
      9.44694132e-02 1.15826756e-01 -2.24667285e-02 2.28802741e-01
      1.13682397e-01 -7.94497728e-02 -2.14786336e-01 -3.77504267e-02
      1.74574345e-01 5.98321715e-03 2.18783140e-01 1.36657283e-01
      -1.48233891e-01 -5.62551096e-02 -2.70901412e-01 -3.17754014e-03
      -1.84862316e-02 7.27465078e-02 -6.04807511e-02 -2.68547167e-03
      -1.73915848e-01 -3.05299640e-01 -4.51313555e-02 -1.21510521e-01
      -2.35144980e-02 -1.32541388e-01 2.18977168e-01 1.51363730e-01
      2.21765518e-01 -1.93312645e-01 1.60927892e-01 5.96283451e-02
      2.16680214e-01 7.33641088e-02 -1.00026406e-01 1.42016754e-01
      3.58006954e-02 1.15561381e-01 -3.59157145e-01 -6.32044002e-02
      2.32550707e-02 -4.34989072e-02 6.16792329e-02 -9.67475399e-02
      1.52679021e-02 -1.52960181e-01 -4.47273739e-02 -3.42021845e-02
      5.67910597e-02 -2.30388224e-01 -6.58981353e-02 -8.60778615e-02
      -7.15913177e-02 -4.02751118e-02 4.11739945e-02 2.85435468e-02
      -1.20465308e-01 1.21517189e-01 -1.23965122e-01 -1.42065540e-01
      -8.80024061e-02 -1.06897518e-01 -4.06903736e-02 -1.96948364e-01
      -1.36041552e-01 -1.42052338e-01 -2.51138061e-01 -3.70176375e-01
      -2.65130669e-01 -1.50490170e-02 -1.39694706e-01 -7.83242807e-02
      -4.45277840e-02 -1.43837705e-01 3.81065882e-03 -1.61886036e-01
      1.10438414e-01 -4.24004376e-01 -3.02013308e-01 -4.59676027e-01
      -2.99973786e-01 -1.64772451e-01 -1.39212117e-01 -1.57768577e-01
      1.20734550e-01 -1.12239167e-01 -1.69602096e-01 -1.97250649e-01
      -1.63912401e-01 -5.33486009e-01 -4.48176898e-02 -1.78317443e-01
      -1.65153682e-01 -5.34484804e-01 -3.62819254e-01 -2.49292955e-01
      -2.46859670e-01 -1.46945015e-01 -8.68084058e-02 -1.65713117e-01
      -2.25810394e-01 -5.16101494e-02 -9.59644690e-02 -2.62982219e-01
      -1.64587066e-01 -3.64491552e-01 -2.94559121e-01 -4.87245381e-01
      -3.03452045e-01 -1.05441296e-02 2.77211130e-01 -1.94247872e-01
      1.14807161e-02 2.14381993e-01 -6.64621964e-02 3.25075507e-01
      -2.59245992e-01 1.99297622e-01 -2.84840077e-01 8.71450007e-02
      -3.55993479e-01 5.72515558e-03 -5.60162701e-02 2.19201192e-01
      -4.11128923e-02 1.88327178e-01 -2.35278800e-01 2.69385636e-01
      -9.55495685e-02 -1.11473702e-01 -3.03912848e-01 -1.01089537e-01
      -9.54733714e-02 4.42243308e-01 -2.90671110e-01 -1.23855375e-01
      -9.67300907e-02 4.63615000e-01 -2.80205280e-01 1.00678876e-01
      8.89033228e-02 2.69485027e-01 -1.00607052e-03 1.45521104e-01
      2.77691007e-01 2.75683757e-02 3.17047238e-01 -1.19640894e-01
      3.75366844e-02 1.44907981e-01 -6.20976351e-02 1.74056105e-02
      -2.59476509e-02 1.27222463e-01 2.67297596e-01 4.31744933e-01
      1.79281518e-01 2.59149343e-01 3.39548677e-01 -6.74315766e-02
      3.14418674e-01 1.60123140e-01 7.13708401e-02 2.53737450e-01
      5.65861128e-02 3.60220939e-01 2.14775026e-01 5.32863200e-01
      3.57387364e-01 1.47302136e-01 5.55341952e-02 1.40277550e-01
      1.14763111e-01 4.81682599e-01 1.44814506e-01 2.12872043e-01
      -3.82315144e-02 2.95308381e-01 -2.19578937e-01 4.32301432e-01
      -9.83433500e-02 3.25658888e-01 2.07931064e-02 4.50829595e-01
      -1.25629887e-01 3.78323883e-01 2.66365588e-01 3.68283778e-01
      1.65351421e-01 3.29447776e-01 1.68091297e-01 1.65198117e-01
      3.60274166e-01 2.23318577e-01 8.89209434e-02 3.72983992e-01
      2.56680727e-01 4.21378672e-01 -9.28695798e-02 1.11470208e-01
      1.62490472e-01 3.64384711e-01 3.41972798e-01 2.31554002e-01
      3.20566371e-02 2.24986166e-01 -2.38055047e-02 2.83007681e-01
      -2.63707578e-01 1.58440396e-01 -1.89115211e-01 2.39954382e-01
      -1.51380539e-01 5.17618097e-02 9.22690257e-02 2.65857369e-01
      -1.33780271e-01 3.08032215e-01 -1.62031144e-01 3.90181720e-01
      1.19054750e-01 2.30495840e-01 4.61312979e-02 4.59217399e-01
      -1.38623953e-01 2.97639072e-01 -1.34591922e-01 3.43142569e-01
      2.12068185e-01 3.94685805e-01 1.30867854e-01 1.09094419e-01
      8.06599855e-02 2.02350676e-01 -3.73220406e-02 2.51352400e-01
      -3.34977172e-02 1.89184532e-01 3.55488151e-01 7.34250546e-02
      -1.08073428e-02 9.67919454e-02 6.39524162e-02 -6.76224232e-02
      1.26302512e-02 2.34052822e-01 9.99731198e-02 3.60293478e-01
      1.61391914e-01 3.32548290e-01 6.72298372e-02 8.32886174e-02
      2.39553779e-01 2.25641876e-02 8.47352576e-03 1.88421384e-01
      9.81068164e-02 1.41054749e-01 -7.58320140e-03 -1.87612176e-02
      -2.34620884e-01 1.56555131e-01 5.62938154e-02 2.38685206e-01
      2.73419209e-02 3.16273451e-01 6.68332577e-02 2.88447797e-01
      -8.10739100e-02 1.11137845e-01 -4.01859209e-02 3.90418351e-01
      1.81262698e-02 9.49499235e-02 1.58749819e-01 2.33517721e-01
      4.68769282e-01 -1.10209942e-01 6.42814934e-02 2.87359297e-01
      2.48694509e-01 1.21029936e-01 2.09215343e-01 2.27392524e-01
      3.82034004e-01 1.47505671e-01 1.63451105e-01 4.99026142e-02
      2.65139043e-01 1.41418695e-01 2.31957629e-01 6.71243370e-02
      1.83812261e-01 -2.63570491e-02 -3.10454778e-02 -1.27085924e-01
      -4.47897352e-02 -9.23486501e-02 1.29216373e-01 2.59845376e-01
      -1.49261102e-01 -2.40518674e-01 5.39874360e-02 -5.88260666e-02
      -9.60416198e-02 -3.14095281e-02 1.96862921e-01 2.67835200e-01
      -6.05775155e-02 8.79089534e-02 8.38318914e-02 2.65395701e-01
      -4.42092195e-02 -4.29331101e-02 9.87895653e-02 2.44857654e-01
      9.43104029e-02 1.84020907e-01 8.47547278e-02 1.31191537e-01
      1.73522577e-01 1.65079996e-01 -8.36522598e-03 -1.64655462e-01
      1.25676557e-01 1.39067009e-01 1.85151950e-01 -1.56363189e-01
      1.01150833e-01 2.01541975e-01 1.66217282e-01 3.54959548e-01
      -8.58304277e-02 2.54216313e-01 8.82674754e-02 2.35532969e-01
      -3.80342789e-02 -1.62160233e-01 -2.06750948e-02 1.09695911e-01
      1.40824318e-01 5.96692860e-01 2.23195493e-01 3.33283782e-01
      1.14290401e-01 3.91950965e-01 2.55969942e-01 4.57500160e-01
      1.07973345e-01 3.77071321e-01 1.93475425e-01 2.63469994e-01
      1.91157997e-01 1.54815152e-01 2.14608818e-01 4.52532887e-01
      1.83664232e-01 1.41299427e-01 1.47160679e-01 2.49757603e-01
      4.48250100e-02 2.60765493e-01 -1.33821726e-01 2.19704702e-01
      -2.00154364e-01 2.47986048e-01 3.33433717e-01 4.38540667e-01
      1.32579222e-01 4.70317490e-02 -1.14255678e-02 7.34712064e-01
      2.57617384e-01 2.95147568e-01 4.10652459e-01 2.52894491e-01
      -3.71753762e-04 1.41270518e-01 2.02857271e-01 2.63897985e-01
      2.01119632e-01 1.91380814e-01 1.52762115e-01 1.45225570e-01
      2.28181168e-01 1.62898704e-01 6.18207097e-01 9.27000418e-02
      3.55073512e-01 7.61136636e-02 3.30151469e-01 -2.92559136e-02
      3.07995945e-01 -8.27242211e-02 3.90488714e-01 3.94870847e-01
      4.53139693e-01 -1.17372438e-01 2.54859626e-01 9.37919170e-02
      3.07337999e-01 2.17782110e-01 1.36763766e-01 2.92091399e-01
      4.51583192e-02 7.92646036e-02 8.98440704e-02 2.90631950e-01
      5.28233275e-02 2.66138613e-01 8.16217586e-02 2.42067814e-01
      -5.19344732e-02 3.17155868e-01 1.68010309e-01 1.25473112e-01
      2.03624964e-01 3.61900717e-01 5.66866040e-01 2.66794831e-01
      3.14266086e-01 1.19565219e-01 3.86910319e-01 4.07836139e-01
      1.97812729e-02 2.59096175e-01 1.12855911e-01 2.39059374e-01
      9.69618037e-02 2.66588360e-01 2.96303481e-01 6.25101686e-01
      6.87532872e-02 3.55657578e-01 1.46089688e-01 4.76090729e-01
      1.62738144e-01 3.24441671e-01 -1.23457059e-01 2.70012051e-01
      -8.46069828e-02 5.43400884e-01 -1.24609932e-01 3.74941528e-01
      -1.42191231e-01 4.76615369e-01 -3.15682054e-01 4.68751848e-01
      9.46098492e-02 4.89765882e-01 -4.52921689e-02 6.02706909e-01
      2.64137954e-01 3.06698114e-01 9.02658775e-02 5.22777081e-01
      1.87142208e-01 4.52469349e-01 4.99297559e-01 5.69468439e-01
      2.16900840e-01 5.66610634e-01 3.36816818e-01 3.50546569e-01
      4.65309657e-02 7.10495412e-02 2.10380424e-02 1.84859484e-01
      1.34798251e-02 1.66308016e-01 2.06317917e-01 1.54373243e-01
      3.62846698e-03 3.20854425e-01 2.67962128e-01 2.37160116e-01
      5.27945794e-02 1.44574121e-01 2.83029348e-01 4.99463156e-02
      2.88710922e-01 7.46324435e-02 2.37125933e-01 1.53002501e-01
      1.20856844e-01 3.60994220e-01 1.11321144e-01 5.42638339e-02
      -2.98546944e-02 1.06216088e-01 -3.30549851e-02 9.35489312e-02
      -4.73458283e-02 -2.45864931e-02 -3.10231326e-03 -3.25826705e-02
      2.36433640e-01 2.04524864e-02 -1.22471852e-02 -1.85433403e-01
      4.49916767e-03 6.89730272e-02 -2.71013230e-01 1.09768391e-01
      1.59547627e-01 1.49107939e-02 5.37898354e-02 -3.00215006e-01
      5.94214275e-02 -4.15813513e-02 3.81752372e-01 -1.03028864e-01
      1.99698359e-02 -4.23052832e-02 2.85734296e-01 1.41411498e-01
      1.34820491e-01 3.21662948e-02 -2.40190193e-01 6.58182427e-02
      -1.27795553e-02 2.16009602e-01 3.78027290e-01 2.12319583e-01
      2.48162284e-01 1.84935778e-01 2.80891329e-01 1.22889400e-01
      3.13783765e-01 4.45219502e-03 1.33115947e-01 4.07801837e-01
      4.71005999e-02 2.31436670e-01 1.87691227e-01 2.12507233e-01
      2.03709558e-01 1.00085869e-01 3.67586672e-01 1.96552098e-01
      1.16491253e-02 1.25262305e-01 1.70609295e-01 4.75887544e-02
      4.09328192e-01 -3.63635391e-01 3.53803813e-01 1.06804378e-01
      7.64653385e-02 1.31919030e-02 -6.95090566e-04 2.69589033e-02
      2.91628569e-01 1.11532472e-01 3.29556942e-01 8.78042430e-02
      2.08676174e-01 1.43222690e-01 2.96816826e-01 -1.54029122e-02
      3.77018988e-01 8.55661333e-02 7.10900351e-02 1.37968436e-02
      -6.31845519e-02 1.34328246e-01 -4.33740541e-02 -1.95297971e-02
      1.67459756e-01 2.34008133e-01 1.40876591e-01 -2.88256742e-02
      7.38878995e-02 2.62586474e-01 3.24890882e-01 3.68262142e-01
      1.18444651e-01 3.42114329e-01 -2.87330687e-01 6.51481003e-02
      -9.12286807e-03 -5.69337532e-02 -2.48337798e-02 2.68641990e-02
      -1.46450117e-01 -1.60526767e-01 7.89980777e-03 -2.15609387e-01
      3.35034609e-01 -1.34836808e-01 2.24195093e-01 -1.93793967e-01
      -7.08132982e-02 -2.07414225e-01 -6.62442297e-02 -2.56417364e-01
      4.88492623e-02 -2.55852938e-01 -1.81477234e-01 -2.07928643e-02
      -2.03307226e-01 -9.43593383e-02 -1.45749465e-01 -1.16934888e-01
      -1.86883792e-01 6.81535453e-02 6.45294413e-02 3.19756806e-01
      -3.32271457e-02 1.44459158e-01 -3.85761708e-01 1.13940299e-01
      -1.33373708e-01 2.98924387e-01 -2.26000234e-01 4.55431640e-01
      -7.88036734e-02 2.76422054e-01 1.61472574e-01 3.16399299e-02
      -4.76477183e-02 -5.00982516e-02 1.23551637e-01 1.47974551e-01
      -8.72348174e-02 -9.64259133e-02 -1.12562537e-01 -1.61848247e-01
      -1.26073956e-01 -7.93275684e-02 -1.18389390e-01 -2.42181733e-01
      -6.79721534e-02 3.98853533e-02 -1.81552798e-01 -5.52849956e-02
      -2.07163900e-01 -3.44723582e-01 -1.92124963e-01 -2.34426130e-02
      2.16260441e-02 -2.86396235e-01 -2.06103884e-02 -8.02449137e-02
      3.23357098e-02 -2.01774076e-01 -1.34791002e-01 -6.41053542e-04
      1.85332626e-01 5.06097637e-02 -1.88276857e-01 4.59741317e-02
      1.04240663e-01 2.82359812e-02 -4.84138392e-02 4.05516177e-01
      -1.10372737e-01 -2.30702952e-01 5.21229431e-02 -1.49307758e-01
      6.96020573e-02 -4.16141935e-02 3.53561863e-02 1.60748869e-01
      1.76247433e-01 2.21588999e-01 -1.97381377e-01 5.33793196e-02
      1.96568407e-02 1.52599305e-01 -1.90857738e-01 1.02773622e-01
      -1.24881372e-01 2.36509532e-01 -1.93297341e-01 4.35271598e-02
      5.20911179e-02 -1.19741015e-01 -1.85421780e-02 1.21783430e-03
      -3.06406021e-01 -3.98342401e-01 -1.27539307e-01 -2.87358940e-01
      -5.88132590e-02 -2.00294092e-01 9.34859440e-02 -9.68254954e-02
      -1.04291802e-02 2.42464487e-02 3.34967719e-03 -1.16552748e-01
      3.51394296e-01 -1.83169588e-01 2.53823906e-01 1.58159122e-01
      1.23607375e-01 -1.26530483e-01 6.61531165e-02 -2.36970887e-01
      2.81821489e-01 -8.27086493e-02 -6.08056225e-02 8.07788447e-02
      7.47319460e-02 -3.70619833e-01 -1.16875410e-01 -2.01255426e-01
      -7.57751465e-02 -3.23969841e-01 3.27497512e-01 -2.98005044e-02
      1.70702025e-01 -2.04914391e-01 2.74536073e-01 -2.18257785e-01
      1.42927960e-01 -1.95494547e-01 2.52480656e-01 2.39122480e-01
      3.34885776e-01 9.06515792e-02 1.83992878e-01 6.82061762e-02
      2.70636320e-01 4.02055264e-01 1.84584677e-01 2.58755922e-01
      4.42250222e-01 -1.86213832e-02 5.40626645e-02 1.23657780e-02
      2.03639314e-01 -2.20111117e-01 4.62185413e-01 -4.62635644e-02
      1.26137704e-01 -2.29022205e-01 -8.36136863e-02 -2.81487256e-01
      1.65210322e-01 -4.29347195e-02 2.42218778e-01 -1.55294701e-01
      2.31922016e-01 -4.87950183e-02 1.40528202e-01 -2.25336984e-01
      1.07478812e-01 -1.06378525e-01 1.75099239e-01 -3.89500320e-01
      -1.94239020e-02 -1.58180296e-01 1.08170234e-01 -1.61477715e-01
      2.98729897e-01 -1.25460953e-01 2.63021022e-01 1.24098100e-02
      -1.09078869e-01 -2.05561016e-02 2.75341645e-02 -1.50797546e-01
      -3.16440105e-01 -1.61368430e-01 -1.09723262e-01 2.02267785e-02
      -1.99156523e-01 2.12170303e-01 4.50614989e-02 1.20973177e-01
      -1.82261959e-01 1.57057405e-01 -1.96174681e-01 -1.13775305e-01
      -2.54557058e-02 -1.60966918e-01 -2.34372213e-01 -5.43561995e-01
      1.17960669e-01 -2.64285505e-01 -2.93363854e-02 -8.38920251e-02
      -1.22117875e-02 -2.22669058e-02 -1.43017292e-01 -3.29721719e-01
      -1.86955869e-01 -8.71827379e-02 -1.88742831e-01 -2.55668700e-01
      -2.92468011e-01 8.21918715e-03 4.16374654e-02 -1.64965644e-01
      1.16272569e-01 -1.84458837e-01 5.18195741e-02 -1.63238198e-01
      -3.30270939e-02 -7.26411194e-02 1.75895661e-01 -4.41061892e-02
      6.88236058e-02 -1.03530236e-01 5.82112744e-02 -2.38866732e-01
      7.21019432e-02 -9.34869647e-02 -6.10731877e-02 -3.66210729e-01
      1.76296145e-01 -2.77164340e-01 1.00990638e-01 -1.37591347e-01
      1.58655792e-01 -8.30023065e-02 1.08646289e-01 -1.16736025e-01
      3.27270836e-01 -2.14099154e-01 -9.19475630e-02 -6.07638896e-01
      -1.16120823e-01 -4.12334859e-01 -1.19523942e-01 -2.91111916e-01
      -1.52205124e-01 -1.07006140e-01 1.11813039e-01 -2.19759315e-01
      -2.34274298e-01 7.16071576e-02 1.24001749e-01 -5.95503971e-02
      8.26767739e-03 -1.28339872e-01 -5.93353808e-02 3.56806703e-02
      1.60279721e-02 1.20640434e-01 5.00497855e-02 -1.05170645e-01
      -7.11450502e-02 -2.13616580e-01 -2.31976345e-01 -1.50386959e-01
      -5.62330075e-02 -7.71044791e-02 -2.65635461e-01 1.72869079e-02
      -4.84975288e-03 6.94274008e-02 2.84927785e-01 -3.32844704e-01
      1.22026481e-01 -9.42625031e-02 -6.32698312e-02 -7.73241445e-02
      1.74157962e-01 -3.53487164e-01 2.28840694e-01 -3.24907899e-01
      8.76711383e-02 -2.61348575e-01 2.10224479e-01 -2.85029650e-01
      8.00118893e-02 -3.87661099e-01 -3.39202620e-02 -2.63304681e-01
      -2.35263817e-02 -8.46104510e-03 8.51214379e-02 -9.81747508e-02
      3.40646990e-02 4.23568152e-02 1.82239681e-01 -8.73021707e-02
      4.02762413e-01 6.51957393e-02 4.02172059e-01 -7.26729482e-02
      -1.54450029e-01 8.36069733e-02 9.44785178e-02 -1.47552818e-01
      4.05733325e-02 1.80978715e-01 -3.26113135e-01 -2.44664669e-01
      2.34223470e-01 -1.40773281e-01 2.59225488e-01 1.51652426e-01
      1.92076847e-01 3.58302027e-01 3.81384283e-01 -7.03919008e-02
      1.38984844e-01 9.81260240e-02 1.52717501e-01 -1.40825585e-01
      -3.32338251e-02 -1.18164137e-01 1.94160014e-01 1.01785749e-01
      2.28157893e-01 2.24964768e-01 -5.89013100e-02 8.97316784e-02
      1.32109866e-01 6.95120618e-02 -1.53462932e-01 3.62470418e-01
      -5.75696491e-02 2.82906264e-01 8.06726981e-03 4.16430861e-01
      2.63781518e-01 1.30268797e-01 -4.14609537e-03 -2.15232205e-02
      9.94273052e-02 -2.18644723e-01 1.58795211e-02 -2.71418989e-01
      2.10664988e-01 1.34781599e-01 2.62508959e-01 7.88326338e-02
      -1.02945566e-01 9.94150639e-02 1.69943675e-01 -4.13009822e-02
      -1.08456602e-02 4.15200703e-02 2.15091839e-01 3.61843035e-02
      7.47615844e-02 -1.84691504e-01 2.16568023e-01 -2.33016253e-01
      3.29517841e-01 9.65868607e-02 -9.92711708e-02 9.42295045e-02
      3.68881494e-01 2.26573929e-01 -8.81196633e-02 -9.04491171e-02
      2.24011406e-01 9.94059518e-02 1.58278883e-01 3.03913921e-01
      3.75440978e-02 1.01742648e-01 9.36607122e-02 2.57945091e-01
      -2.97175087e-02 1.38184279e-01 7.95412958e-02 2.64981568e-01
      -1.04806118e-01 3.60241145e-01 2.13635623e-01 2.61812747e-01
      1.37402222e-01 1.98756736e-02 2.23883286e-01 1.38312317e-02
      -3.88886966e-02 -2.44136769e-02 1.97678596e-01 -2.16710612e-01
      2.56137460e-01 -3.59736145e-01 8.00301358e-02 -1.06217645e-01
      3.12664717e-01 -9.62790474e-02 2.95389742e-01 -1.72992170e-01
      -1.60636883e-02 -1.49863869e-01 2.58164760e-02 -5.54484189e-01
      8.14994574e-02 -3.12024802e-01 3.10687535e-02 -4.89639461e-01
      1.55346453e-01 -2.32207730e-01 1.38125926e-01 -1.67819157e-01
      3.34527224e-01 3.78988534e-02 2.62402952e-01 1.80761695e-01
      -1.39477581e-01 -1.61965013e-01 -2.93406248e-02 4.28523757e-02
      8.68277922e-02 -1.39145523e-01 1.65325344e-01 1.97564900e-01
      6.90127909e-02 -8.52804407e-02 -2.31062230e-02 -3.16911727e-01
      -7.47250579e-03 -1.39873132e-01 2.94637643e-02 -2.09581226e-01
      2.59026676e-01 2.13546026e-02 5.98730557e-02 -1.81896806e-01
      1.50592864e-01 -1.30007863e-01 -2.77615748e-02 -2.06431851e-01
      1.38671562e-01 -1.18790671e-01 9.71615016e-02 1.88763529e-01
      2.19365239e-01 -4.15337160e-02 7.15928851e-03 1.17454126e-01
      1.16610877e-01 -1.87946022e-01 -3.84352088e-01 -8.06886181e-02
      -3.38507384e-01 -1.16778806e-01 -3.14241439e-01 -1.01121888e-02
      -1.53863952e-01 2.95793265e-02 9.46504436e-03 4.10906188e-02
      -4.80224900e-02 -1.78797632e-01 -2.33192861e-01 -6.70747384e-02
      -1.00609474e-01 -2.22332880e-01 -1.64587915e-01 -1.16948001e-01
      -3.16058636e-01 -3.19848835e-01 -1.17797337e-01 -1.67038649e-01
      -1.55780241e-01 -1.40065715e-01 7.25494744e-03 -1.39793456e-01
      -1.79294571e-01 -2.68870682e-01 4.40718867e-02 -1.12907574e-01
      -6.08339943e-02 2.00061888e-01 1.79980949e-01 5.86948777e-03
      1.36928603e-01 2.78338104e-01 1.26764193e-01 -7.93570876e-02
      2.03072995e-01 3.76461190e-03 -2.90784594e-02 -1.57460332e-01
      -2.86191791e-01 -2.29934752e-01 8.59412849e-02 -5.07835895e-02
      5.18264249e-04 1.04266018e-01 -2.10241005e-01 -2.23238751e-01
      1.63944438e-02 -1.94033340e-01 -1.10231936e-01 -8.19974020e-02
      -1.82745680e-01 -1.34016588e-01 -2.73540646e-01 -2.57700771e-01
      -1.15030378e-01 -2.47058496e-02 -3.99497971e-02 -2.61049300e-01
      -2.47997511e-02 -1.95334166e-01 -1.22912921e-01 -1.85672209e-01
      1.06177613e-01 2.43072659e-02 1.51895016e-01 1.37952760e-01
      -2.30583191e-01 -2.02337280e-01 -1.80779293e-01 -8.39685649e-02
      -2.13781714e-01 -1.10377707e-02 -4.25104260e-01 -1.05299532e-01
      -1.49684086e-01 -7.03161210e-02 5.19217253e-02 -1.95645064e-01
      -9.00407955e-02 2.23680139e-02 -3.91135700e-02 -1.81288123e-01
      7.37716556e-02 9.26247612e-02 1.14127636e-01 1.00285418e-01
      -3.61167756e-03 -5.15316650e-02 -8.58381242e-02 -8.65531415e-02
      6.13383390e-02 1.34291977e-01 -8.97027627e-02 -7.56429657e-02
      9.31629464e-02 -4.35874052e-02 6.78650364e-02 -3.59773517e-01
      1.08663581e-01 -3.03392231e-01 -1.37174815e-01 -3.16565752e-01
      -1.57325104e-01 -2.60394037e-01 -2.92671829e-01 -1.69504330e-01
      -1.84286132e-01 -1.25769451e-01 -1.36338575e-02 -2.62654871e-01
      1.76078871e-01 4.60779667e-02 -6.06852956e-02 1.04656957e-01
      -2.70833112e-02 2.70190388e-02 -9.54479948e-02 -8.31515640e-02
      -7.02441409e-02 -1.84990585e-01 2.14265376e-01 -1.67307392e-01
      1.54552653e-01 7.35110119e-02 -2.48311572e-02 -4.41809744e-02
      1.32833838e-01 -1.63843725e-02 -1.69076353e-01 -1.07519940e-01
      1.44304574e-01 -4.20568474e-02 -1.42855104e-02 -2.56926566e-01
      -1.22022726e-01 -2.60001123e-01 7.29605481e-02 -1.23503268e-01
      -5.09069338e-02 -1.50381625e-01 -1.79571629e-01 4.11146097e-02
      -2.31792122e-01 -1.04143597e-01 2.51898319e-01 1.79288030e-01
      3.17935497e-02 4.24135253e-02 -5.24139926e-02 9.76633653e-03
      1.48418322e-01 -1.77129686e-01 -1.90085098e-02 -1.38411075e-01
      -1.26648219e-02 -1.87065482e-01 3.82403314e-01 1.07439674e-01
      1.22638844e-01 2.56064862e-01 3.43579233e-01 1.88036039e-01
      2.01861769e-01 8.90898108e-02 1.61508188e-01 3.12601715e-01
      3.88138086e-01 -6.21700138e-02 2.53334671e-01 1.99142471e-01
      1.62982941e-01 1.99908987e-01 4.42689925e-01 1.39270946e-01
      3.31920058e-01 3.75462204e-01 2.19330952e-01 1.43083602e-01
      3.26204926e-01 4.16959554e-01 2.76053041e-01 4.93933350e-01
      2.16769725e-01 3.85608703e-01 1.41878039e-01 2.59270251e-01
      2.14658663e-01 1.56839028e-01 2.37794474e-01 3.14188987e-01
      2.46818289e-01 1.29070297e-01 9.33944061e-02 1.95832059e-01
      7.84334689e-02 -5.05290590e-02 1.88190579e-01 1.14997685e-01
      3.26448798e-01 2.47763976e-01 -4.18905690e-02 2.32519358e-01
      2.03331172e-01 3.77689838e-01 -7.24584460e-02 2.75505066e-01
      1.74244672e-01 1.56279907e-01 3.06875676e-01 2.47579273e-02
      4.20024022e-02 1.52967855e-01 3.08287233e-01 2.28445768e-01
      2.60573328e-01 1.40489355e-01 2.03965575e-01 -3.86880115e-02
      4.70219031e-02 1.07627228e-01 8.13543499e-02 1.76439077e-01
      -7.66142011e-02 3.12465549e-01 -5.74334003e-02 1.99240699e-01
      9.09566358e-02 1.06010683e-01 1.94713205e-01 2.36448526e-01
      4.24704561e-03 2.72461265e-01 -2.42024615e-01 3.06251258e-01
      2.43412733e-01 3.66993159e-01 8.71014297e-02 2.43474409e-01
      1.16735727e-01 1.33635819e-01 2.20115796e-01 1.15941256e-01
      4.02291231e-02 5.62815249e-01 4.06336218e-01 3.27850342e-01
      1.30583450e-01 2.52261579e-01 9.09612998e-02 5.13396025e-01
      4.39760573e-02 4.77369338e-01 3.72423440e-01 5.14152467e-01
      4.70196813e-01 3.05645853e-01 6.15723170e-02 -8.39676112e-02
      2.42618784e-01 -8.10314491e-02 -4.72961664e-02 -3.30453436e-03
      1.73289746e-01 4.20915574e-01 1.77119330e-01 1.10271953e-01
      8.48561525e-02 3.00942898e-01 1.82234734e-01 -1.37143925e-01
      -1.43528312e-01 2.03497767e-01 -1.21478975e-01 9.83918756e-02
      -1.20810233e-01 2.17969641e-01 8.48464668e-02 3.40022683e-01
      -7.07497895e-02 1.19426638e-01 -1.02990508e-01 1.16047896e-01
      -2.16028780e-01 -1.05139725e-01 -8.45720917e-02 4.43590842e-02
      -1.18797928e-01 2.10027546e-01 -9.81255472e-02 2.52712995e-01
      2.15055987e-01 1.35205269e-01 -3.01771343e-01 -5.19388355e-02
      1.29709795e-01 -6.88503832e-02 -2.41059169e-01 -6.10270873e-02
      -1.74615737e-02 7.67327100e-02 -1.72241956e-01 2.03097194e-01
      -9.88233835e-02 4.90758568e-01 -8.42419490e-02 2.26531819e-01
      -2.01599911e-01 1.05887212e-01 -1.28315911e-01 1.74130961e-01
      -1.10465720e-01 -1.73921332e-01 -4.37774360e-01 -1.22402452e-01
      -2.01614976e-01 -1.29345655e-01 -5.98612651e-02 1.51798800e-01
      -9.18490961e-02 -3.25927913e-01 4.05128449e-02 -7.38384873e-02
      1.57988131e-01 -1.65823519e-01 -8.36234167e-02 -3.35458331e-02
      -7.78763322e-03 -1.94453388e-01 1.14727184e-01 3.95911420e-03
      1.14100866e-01 -1.01601765e-01 -1.18215024e-01 5.09405620e-02
      3.32604676e-01 1.52969109e-02 3.73423010e-01 5.85464388e-02
      1.18713729e-01 -4.96359430e-02 3.71720307e-02 -1.69574738e-01
      -2.07457155e-01 -2.83505976e-01 -2.49964446e-02 5.64759634e-02
      -2.68778145e-01 1.68860778e-01 -3.60540934e-02 1.97312459e-01
      2.93181855e-02 -4.28925827e-02 2.04645600e-02 4.05469298e-01
      5.42672724e-02 -2.61738807e-01 2.15349779e-01 -9.51570868e-02
      4.37577933e-01 6.39709473e-01 3.16380948e-01 1.56471506e-01
      -8.62794220e-02 -1.21353224e-01 1.66222602e-01 4.43569459e-02
      2.12372914e-02 1.87687308e-01 -5.42132035e-02 1.03248313e-01
      -1.79691151e-01 -6.85199210e-03 1.41642215e-02 7.43832365e-02
      4.06838730e-02 2.64755338e-01 -7.98886269e-02 3.27146322e-01
      1.45534175e-02 -4.32960719e-01 -2.34646976e-01 -4.15683212e-03
      1.32812142e-01 -2.88435787e-01 -2.31255651e-01 -2.65405566e-01
      1.41052708e-01 -2.88815051e-01 2.05716103e-01 -1.55630618e-01
      -9.37062055e-02 -2.33130977e-01 -2.64680654e-01 -7.17907667e-01
      -3.42950262e-02 -6.85353100e-01 -2.59287387e-01 -5.75646698e-01
      -2.10701406e-01 -7.84661114e-01 -2.59958327e-01 -7.02480376e-01
      -2.23788098e-01 -3.23422626e-02 -2.14886680e-01 -2.40419284e-01
      -8.47294182e-02 -1.64963156e-01 2.48187214e-01 9.39224958e-02
      9.34311748e-02 -1.17412731e-01 -4.69112396e-02 -2.37341180e-01
      -5.04928268e-03 -8.52231532e-02 -1.77160084e-01 9.29271355e-02
      -5.92092983e-02 4.46662903e-02 -9.99734029e-02 9.85003449e-03
      2.67184347e-01 -5.12118824e-02 1.30118743e-01 -4.68877852e-02
      -1.80439159e-01 -3.74281928e-02 -1.91211611e-01 -4.03069496e-01
      -5.80420382e-02 -3.01476330e-01 6.65963814e-02 7.90054649e-02
      8.54120776e-03 -2.02710584e-01 1.98474899e-01 -2.91870981e-01
      -3.36665399e-02 -2.74574041e-01 -3.67795229e-02 -3.10801536e-01
      -2.01222479e-01 -9.42517444e-02 1.04577340e-01 -3.79444957e-01
      6.86592609e-02 -2.58088857e-01 6.19572476e-02 -1.51775330e-01
      -2.46081293e-01 -2.55232632e-01 -1.17706731e-01 -2.81259239e-01
      -2.81952322e-01 -1.53539687e-01 -1.14454746e-01 -1.96905341e-02
      -2.19554558e-01 -1.62826911e-01 -4.08762991e-01 3.69677067e-01</_></support_vectors>
  <decision_functions>
    <_>
      <sv_count>1</sv_count>
      <rho>2.4349823679406200e+00</rho>
      <alpha>
        1.</alpha>
      <index>
        0</index></_></decision_functions></my_svm>
</opencv_storage>
